Language model created by QuickLM on Tue Jun 26 03:07:37 EDT 2018
Copyright (c) 1996-2010 Carnegie Mellon University and Alexander I. Rudnicky

The model is in standard ARPA format, designed by Doug Paul while he was at MITRE.

The code that was used to produce this language model is available in Open Source.
Please visit http://www.speech.cs.cmu.edu/tools/ for more information

The (fixed) discount mass is 0.5. The backoffs are computed using the ratio method.
This model based on a corpus of 8 sentences and 10 words

\data\
ngram 1=10
ngram 2=16
ngram 3=8

\1-grams:
-0.7782 </s> -0.3010
-0.7782 <s> -0.2218
-1.6812 停下来 -0.2218
-1.6812 停止 -0.2218
-1.6812 复位 -0.2218
-1.6812 头部关闭 -0.2218
-1.6812 头部打开 -0.2218
-1.6812 座椅关闭 -0.2218
-1.6812 座椅打开 -0.2218
-1.6812 记忆位置 -0.2218

\2-grams:
-1.2041 <s> 停下来 0.0000
-1.2041 <s> 停止 0.0000
-1.2041 <s> 复位 0.0000
-1.2041 <s> 头部关闭 0.0000
-1.2041 <s> 头部打开 0.0000
-1.2041 <s> 座椅关闭 0.0000
-1.2041 <s> 座椅打开 0.0000
-1.2041 <s> 记忆位置 0.0000
-0.3010 停下来 </s> -0.3010
-0.3010 停止 </s> -0.3010
-0.3010 复位 </s> -0.3010
-0.3010 头部关闭 </s> -0.3010
-0.3010 头部打开 </s> -0.3010
-0.3010 座椅关闭 </s> -0.3010
-0.3010 座椅打开 </s> -0.3010
-0.3010 记忆位置 </s> -0.3010

\3-grams:
-0.3010 <s> 停下来 </s>
-0.3010 <s> 停止 </s>
-0.3010 <s> 复位 </s>
-0.3010 <s> 头部关闭 </s>
-0.3010 <s> 头部打开 </s>
-0.3010 <s> 座椅关闭 </s>
-0.3010 <s> 座椅打开 </s>
-0.3010 <s> 记忆位置 </s>

\end\
